<?xml version="1.0"?>
<opencv_storage>
<myfacedetector type_id="opencv-haar-classifier">
  <size>
    24 24</size>
  <stages>
    <_>
      <trees>
        <_>
          <_>
            <feature>
              <rects>
                <_>
                  0 1 24 4 -1.</_>
                <_>
                  6 1 12 4 2.</_></rects>
              <tilted>0</tilted></feature>
            <threshold>-0.0334393009543419</threshold>
            <left_val>0.7818182110786438</left_val>
            <right_val>-0.5489361882209778</right_val></_></_>
        <_>
          <_>
            <feature>
              <rects>
                <_>
                  7 10 16 8 -1.</_>
                <_>
                  11 10 8 8 2.</_></rects>
              <tilted>0</tilted></feature>
            <threshold>0.0271840095520020</threshold>
            <left_val>-0.1833228021860123</left_val>
            <right_val>0.7206311225891113</right_val></_></_>
        <_>
          <_>
            <feature>
              <rects>
                <_>
                  1 10 16 8 -1.</_>
                <_>
                  5 10 8 8 2.</_></rects>
              <tilted>0</tilted></feature>
            <threshold>-0.0294958408921957</threshold>
            <left_val>0.8452007174491882</left_val>
            <right_val>-0.3698548078536987</right_val></_></_>
        <_>
          <_>
            <feature>
              <rects>
                <_>
                  8 0 9 8 -1.</_>
                <_>
                  8 2 9 4 2.</_></rects>
              <tilted>0</tilted></feature>
            <threshold>-5.5495449341833591e-003</threshold>
            <left_val>0.4400931894779205</left_val>
            <right_val>-0.6895424723625183</right_val></_></_>
        <_>
          <_>
            <feature>
              <rects>
                <_>
                  2 10 20 11 -1.</_>
                <_>
                  12 10 10 11 2.</_></rects>
              <tilted>0</tilted></feature>
            <threshold>-0.0949752628803253</threshold>
            <left_val>0.8851410150527954</left_val>
            <right_val>-0.3785521090030670</right_val></_></_>
        <_>
          <_>
            <feature>
              <rects>
                <_>
                  20 5 4 2 -1.</_>
                <_>
                  22 5 2 1 2.</_>
                <_>
                  20 6 2 1 2.</_></rects>
              <tilted>0</tilted></feature>
            <threshold>1.2228849809616804e-003</threshold>
            <left_val>0.2169151008129120</left_val>
            <right_val>-0.4584859907627106</right_val></_></_></trees>
      <stage_threshold>-1.2979400157928467</stage_threshold>
      <parent>-1</parent>
      <next>-1</next></_>
    <_>
      <trees>
        <_>
          <_>
            <feature>
              <rects>
                <_>
                  0 1 24 12 -1.</_>
                <_>
                  6 1 12 12 2.</_></rects>
              <tilted>0</tilted></feature>
            <threshold>-0.1045873016119003</threshold>
            <left_val>0.8074073791503906</left_val>
            <right_val>-0.4113208949565888</right_val></_></_>
        <_>
          <_>
            <feature>
              <rects>
                <_>
                  21 14 1 3 -1.</_>
                <_>
                  21 15 1 1 3.</_></rects>
              <tilted>0</tilted></feature>
            <threshold>-8.3717721281573176e-004</threshold>
            <left_val>-0.2102753072977066</left_val>
            <right_val>0.2043194025754929</right_val></_></_>
        <_>
          <_>
            <feature>
              <rects>
                <_>
                  1 14 7 3 -1.</_>
                <_>
                  1 15 7 1 3.</_></rects>
              <tilted>0</tilted></feature>
            <threshold>1.9996610935777426e-003</threshold>
            <left_val>0.3132196068763733</left_val>
            <right_val>-0.8497524857521057</right_val></_></_>
        <_>
          <_>
            <feature>
              <rects>
                <_>
                  10 3 13 16 -1.</_>
                <_>
                  10 11 13 8 2.</_></rects>
              <tilted>0</tilted></feature>
            <threshold>0.1102828979492188</threshold>
            <left_val>-0.3000645041465759</left_val>
            <right_val>0.3962922990322113</right_val></_></_>
        <_>
          <_>
            <feature>
              <rects>
                <_>
                  1 13 6 3 -1.</_>
                <_>
                  1 14 6 1 3.</_></rects>
              <tilted>0</tilted></feature>
            <threshold>2.2180310916155577e-003</threshold>
            <left_val>0.3489640057086945</left_val>
            <right_val>-0.8296082019805908</right_val></_></_>
        <_>
          <_>
            <feature>
              <rects>
                <_>
                  10 18 4 4 -1.</_>
                <_>
                  10 20 4 2 2.</_></rects>
              <tilted>0</tilted></feature>
            <threshold>-6.1036120168864727e-003</threshold>
            <left_val>0.5596622824668884</left_val>
            <right_val>-0.5364406108856201</right_val></_></_>
        <_>
          <_>
            <feature>
              <rects>
                <_>
                  5 15 5 3 -1.</_>
                <_>
                  5 16 5 1 3.</_></rects>
              <tilted>0</tilted></feature>
            <threshold>3.8502039387822151e-003</threshold>
            <left_val>0.3168922960758209</left_val>
            <right_val>-0.9440736770629883</right_val></_></_>
        <_>
          <_>
            <feature>
              <rects>
                <_>
                  15 6 8 15 -1.</_>
                <_>
                  15 6 4 15 2.</_></rects>
              <tilted>0</tilted></feature>
            <threshold>0.0268923696130514</threshold>
            <left_val>-0.3014872074127197</left_val>
            <right_val>0.4925661087036133</right_val></_></_></trees>
      <stage_threshold>-0.8481330871582031</stage_threshold>
      <parent>0</parent>
      <next>-1</next></_>
    <_>
      <trees>
        <_>
          <_>
            <feature>
              <rects>
                <_>
                  0 2 24 2 -1.</_>
                <_>
                  8 2 8 2 3.</_></rects>
              <tilted>0</tilted></feature>
            <threshold>-0.0275678504258394</threshold>
            <left_val>0.6228572130203247</left_val>
            <right_val>-0.4844445884227753</right_val></_></_>
        <_>
          <_>
            <feature>
              <rects>
                <_>
                  17 14 6 4 -1.</_>
                <_>
                  17 14 3 4 2.</_></rects>
              <tilted>0</tilted></feature>
            <threshold>0.0103082600980997</threshold>
            <left_val>-0.0684317201375961</left_val>
            <right_val>0.2667486071586609</right_val></_></_>
        <_>
          <_>
            <feature>
              <rects>
                <_>
                  1 14 6 4 -1.</_>
                <_>
                  4 14 3 4 2.</_></rects>
              <tilted>0</tilted></feature>
            <threshold>-4.0550511330366135e-003</threshold>
            <left_val>0.5528277754783630</left_val>
            <right_val>-0.5415596961975098</right_val></_></_>
        <_>
          <_>
            <feature>
              <rects>
                <_>
                  11 13 13 3 -1.</_>
                <_>
                  11 14 13 1 3.</_></rects>
              <tilted>0</tilted></feature>
            <threshold>-0.0131139997392893</threshold>
            <left_val>-0.8100051283836365</left_val>
            <right_val>0.1584416925907135</right_val></_></_>
        <_>
          <_>
            <feature>
              <rects>
                <_>
                  4 15 2 2 -1.</_>
                <_>
                  4 16 2 1 2.</_></rects>
              <tilted>0</tilted></feature>
            <threshold>-6.7268742714077234e-004</threshold>
            <left_val>-0.8984526991844177</left_val>
            <right_val>0.3041022121906281</right_val></_></_>
        <_>
          <_>
            <feature>
              <rects>
                <_>
                  19 15 4 2 -1.</_>
                <_>
                  19 16 4 1 2.</_></rects>
              <tilted>0</tilted></feature>
            <threshold>-2.9882160015404224e-003</threshold>
            <left_val>-0.3765208125114441</left_val>
            <right_val>0.0251865293830633</right_val></_></_>
        <_>
          <_>
            <feature>
              <rects>
                <_>
                  1 15 4 2 -1.</_>
                <_>
                  1 16 4 1 2.</_></rects>
              <tilted>0</tilted></feature>
            <threshold>1.3342429883778095e-003</threshold>
            <left_val>0.3485926985740662</left_val>
            <right_val>-0.8729650974273682</right_val></_></_></trees>
      <stage_threshold>-0.6598201990127564</stage_threshold>
      <parent>1</parent>
      <next>-1</next></_>
    <_>
      <trees>
        <_>
          <_>
            <feature>
              <rects>
                <_>
                  5 20 3 4 -1.</_>
                <_>
                  5 22 3 2 2.</_></rects>
              <tilted>0</tilted></feature>
            <threshold>-1.4224610058590770e-003</threshold>
            <left_val>0.3909465074539185</left_val>
            <right_val>-0.6050956845283508</right_val></_></_>
        <_>
          <_>
            <feature>
              <rects>
                <_>
                  20 12 1 2 -1.</_>
                <_>
                  20 12 1 1 2.</_></rects>
              <tilted>1</tilted></feature>
            <threshold>8.9284148998558521e-004</threshold>
            <left_val>0.0458184294402599</left_val>
            <right_val>-0.2108267992734909</right_val></_></_>
        <_>
          <_>
            <feature>
              <rects>
                <_>
                  4 12 2 1 -1.</_>
                <_>
                  4 12 1 1 2.</_></rects>
              <tilted>1</tilted></feature>
            <threshold>-1.1159879795741290e-004</threshold>
            <left_val>-0.7638255953788757</left_val>
            <right_val>0.3328379988670349</right_val></_></_>
        <_>
          <_>
            <feature>
              <rects>
                <_>
                  9 1 15 10 -1.</_>
                <_>
                  14 1 5 10 3.</_></rects>
              <tilted>0</tilted></feature>
            <threshold>-0.0571438707411289</threshold>
            <left_val>0.7370551228523254</left_val>
            <right_val>-0.2410465925931931</right_val></_></_>
        <_>
          <_>
            <feature>
              <rects>
                <_>
                  0 1 15 10 -1.</_>
                <_>
                  5 1 5 10 3.</_></rects>
              <tilted>0</tilted></feature>
            <threshold>-0.0588763691484928</threshold>
            <left_val>0.8469200134277344</left_val>
            <right_val>-0.3973610103130341</right_val></_></_>
        <_>
          <_>
            <feature>
              <rects>
                <_>
                  14 13 9 3 -1.</_>
                <_>
                  14 14 9 1 3.</_></rects>
              <tilted>0</tilted></feature>
            <threshold>9.9717415869235992e-003</threshold>
            <left_val>0.1500653028488159</left_val>
            <right_val>-0.3294556140899658</right_val></_></_>
        <_>
          <_>
            <feature>
              <rects>
                <_>
                  4 15 8 4 -1.</_>
                <_>
                  6 15 4 4 2.</_></rects>
              <tilted>0</tilted></feature>
            <threshold>-5.0099859945476055e-003</threshold>
            <left_val>0.5836033225059509</left_val>
            <right_val>-0.4380994141101837</right_val></_></_></trees>
      <stage_threshold>-0.6106991767883301</stage_threshold>
      <parent>2</parent>
      <next>-1</next></_>
    <_>
      <trees>
        <_>
          <_>
            <feature>
              <rects>
                <_>
                  6 14 2 1 -1.</_>
                <_>
                  6 14 1 1 2.</_></rects>
              <tilted>1</tilted></feature>
            <threshold>-4.0331188938580453e-004</threshold>
            <left_val>-0.7391303777694702</left_val>
            <right_val>0.2982456982135773</right_val></_></_>
        <_>
          <_>
            <feature>
              <rects>
                <_>
                  15 15 9 3 -1.</_>
                <_>
                  15 16 9 1 3.</_></rects>
              <tilted>0</tilted></feature>
            <threshold>-0.0123255299404264</threshold>
            <left_val>-0.4784275889396668</left_val>
            <right_val>8.0081522464752197e-003</right_val></_></_>
        <_>
          <_>
            <feature>
              <rects>
                <_>
                  0 15 9 3 -1.</_>
                <_>
                  0 16 9 1 3.</_></rects>
              <tilted>0</tilted></feature>
            <threshold>-4.2771329171955585e-003</threshold>
            <left_val>-0.8717980980873108</left_val>
            <right_val>0.2851493060588837</right_val></_></_>
        <_>
          <_>
            <feature>
              <rects>
                <_>
                  9 7 10 16 -1.</_>
                <_>
                  9 15 10 8 2.</_></rects>
              <tilted>0</tilted></feature>
            <threshold>-0.0539070889353752</threshold>
            <left_val>-0.6358528137207031</left_val>
            <right_val>0.1823080927133560</right_val></_></_>
        <_>
          <_>
            <feature>
              <rects>
                <_>
                  0 4 2 16 -1.</_>
                <_>
                  1 4 1 16 2.</_></rects>
              <tilted>0</tilted></feature>
            <threshold>7.2111659683287144e-003</threshold>
            <left_val>-0.2860538959503174</left_val>
            <right_val>0.8654674887657166</right_val></_></_>
        <_>
          <_>
            <feature>
              <rects>
                <_>
                  11 6 7 4 -1.</_>
                <_>
                  11 7 7 2 2.</_></rects>
              <tilted>0</tilted></feature>
            <threshold>-7.9466225579380989e-003</threshold>
            <left_val>-0.5708534121513367</left_val>
            <right_val>0.1198759973049164</right_val></_></_>
        <_>
          <_>
            <feature>
              <rects>
                <_>
                  9 16 6 6 -1.</_>
                <_>
                  9 16 3 3 2.</_>
                <_>
                  12 19 3 3 2.</_></rects>
              <tilted>0</tilted></feature>
            <threshold>-0.0136379497125745</threshold>
            <left_val>0.7923986911773682</left_val>
            <right_val>-0.3043308854103088</right_val></_></_>
        <_>
          <_>
            <feature>
              <rects>
                <_>
                  19 16 2 2 -1.</_>
                <_>
                  19 17 2 1 2.</_></rects>
              <tilted>0</tilted></feature>
            <threshold>9.2350807972252369e-004</threshold>
            <left_val>0.1624113023281097</left_val>
            <right_val>-0.2675951123237610</right_val></_></_>
        <_>
          <_>
            <feature>
              <rects>
                <_>
                  3 16 2 2 -1.</_>
                <_>
                  3 17 2 1 2.</_></rects>
              <tilted>0</tilted></feature>
            <threshold>-6.1560567701235414e-004</threshold>
            <left_val>-0.8024529218673706</left_val>
            <right_val>0.3218599855899811</right_val></_></_></trees>
      <stage_threshold>-1.0680630207061768</stage_threshold>
      <parent>3</parent>
      <next>-1</next></_>
    <_>
      <trees>
        <_>
          <_>
            <feature>
              <rects>
                <_>
                  4 0 14 8 -1.</_>
                <_>
                  4 2 14 4 2.</_></rects>
              <tilted>0</tilted></feature>
            <threshold>-0.0152675695717335</threshold>
            <left_val>0.3779528141021729</left_val>
            <right_val>-0.6575344800949097</right_val></_></_>
        <_>
          <_>
            <feature>
              <rects>
                <_>
                  20 15 1 2 -1.</_>
                <_>
                  20 15 1 1 2.</_></rects>
              <tilted>1</tilted></feature>
            <threshold>9.6729828510433435e-004</threshold>
            <left_val>0.0318027511239052</left_val>
            <right_val>-0.1674710065126419</right_val></_></_>
        <_>
          <_>
            <feature>
              <rects>
                <_>
                  4 15 2 1 -1.</_>
                <_>
                  4 15 1 1 2.</_></rects>
              <tilted>1</tilted></feature>
            <threshold>-5.1045382861047983e-004</threshold>
            <left_val>-0.7512831091880798</left_val>
            <right_val>0.3593473136425018</right_val></_></_>
        <_>
          <_>
            <feature>
              <rects>
                <_>
                  9 6 14 16 -1.</_>
                <_>
                  9 10 14 8 2.</_></rects>
              <tilted>0</tilted></feature>
            <threshold>0.1636334955692291</threshold>
            <left_val>-0.1090485006570816</left_val>
            <right_val>0.6981623172760010</right_val></_></_>
        <_>
          <_>
            <feature>
              <rects>
                <_>
                  0 0 2 2 -1.</_>
                <_>
                  0 0 1 1 2.</_>
                <_>
                  1 1 1 1 2.</_></rects>
              <tilted>0</tilted></feature>
            <threshold>-3.9781231316737831e-004</threshold>
            <left_val>-0.8006737232208252</left_val>
            <right_val>0.2758246958255768</right_val></_></_>
        <_>
          <_>
            <feature>
              <rects>
                <_>
                  13 20 9 4 -1.</_>
                <_>
                  13 22 9 2 2.</_></rects>
              <tilted>0</tilted></feature>
            <threshold>-5.9395888820290565e-004</threshold>
            <left_val>-0.2299620956182480</left_val>
            <right_val>0.0877770483493805</right_val></_></_>
        <_>
          <_>
            <feature>
              <rects>
                <_>
                  0 2 3 1 -1.</_>
                <_>
                  1 2 1 1 3.</_></rects>
              <tilted>0</tilted></feature>
            <threshold>6.4905907493084669e-004</threshold>
            <left_val>0.3038145005702972</left_val>
            <right_val>-0.7582674026489258</right_val></_></_>
        <_>
          <_>
            <feature>
              <rects>
                <_>
                  0 1 24 4 -1.</_>
                <_>
                  8 1 8 4 3.</_></rects>
              <tilted>0</tilted></feature>
            <threshold>-0.0833543986082077</threshold>
            <left_val>0.6396396160125732</left_val>
            <right_val>-0.3971765041351318</right_val></_></_></trees>
      <stage_threshold>-1.2158240079879761</stage_threshold>
      <parent>4</parent>
      <next>-1</next></_>
    <_>
      <trees>
        <_>
          <_>
            <feature>
              <rects>
                <_>
                  0 0 24 23 -1.</_>
                <_>
                  6 0 12 23 2.</_></rects>
              <tilted>0</tilted></feature>
            <threshold>-0.1748874932527542</threshold>
            <left_val>0.6488549709320068</left_val>
            <right_val>-0.3159852027893066</right_val></_></_>
        <_>
          <_>
            <feature>
              <rects>
                <_>
                  23 11 1 2 -1.</_>
                <_>
                  23 11 1 1 2.</_></rects>
              <tilted>1</tilted></feature>
            <threshold>-1.4761169441044331e-003</threshold>
            <left_val>0.1997079998254776</left_val>
            <right_val>-0.0151623701676726</right_val></_></_>
        <_>
          <_>
            <feature>
              <rects>
                <_>
                  1 12 2 1 -1.</_>
                <_>
                  1 12 1 1 2.</_></rects>
              <tilted>1</tilted></feature>
            <threshold>-2.6867319829761982e-003</threshold>
            <left_val>0.7965000271797180</left_val>
            <right_val>-0.2761143147945404</right_val></_></_>
        <_>
          <_>
            <feature>
              <rects>
                <_>
                  16 13 1 2 -1.</_>
                <_>
                  16 13 1 1 2.</_></rects>
              <tilted>1</tilted></feature>
            <threshold>-1.9463499484118074e-005</threshold>
            <left_val>0.2497054040431976</left_val>
            <right_val>-0.2800391018390656</right_val></_></_>
        <_>
          <_>
            <feature>
              <rects>
                <_>
                  6 16 3 2 -1.</_>
                <_>
                  6 17 3 1 2.</_></rects>
              <tilted>0</tilted></feature>
            <threshold>6.9513148628175259e-004</threshold>
            <left_val>0.3071529865264893</left_val>
            <right_val>-0.6226359009742737</right_val></_></_>
        <_>
          <_>
            <feature>
              <rects>
                <_>
                  5 1 14 6 -1.</_>
                <_>
                  5 3 14 2 3.</_></rects>
              <tilted>0</tilted></feature>
            <threshold>-5.7907938025891781e-004</threshold>
            <left_val>0.2812159061431885</left_val>
            <right_val>-0.7100769281387329</right_val></_></_>
        <_>
          <_>
            <feature>
              <rects>
                <_>
                  0 6 18 12 -1.</_>
                <_>
                  6 10 6 4 9.</_></rects>
              <tilted>0</tilted></feature>
            <threshold>-0.1167576014995575</threshold>
            <left_val>0.5436041951179504</left_val>
            <right_val>-0.3823061883449554</right_val></_></_>
        <_>
          <_>
            <feature>
              <rects>
                <_>
                  20 8 4 2 -1.</_>
                <_>
                  20 8 4 1 2.</_></rects>
              <tilted>1</tilted></feature>
            <threshold>5.4833069443702698e-003</threshold>
            <left_val>0.0676574334502220</left_val>
            <right_val>-0.2775770127773285</right_val></_></_>
        <_>
          <_>
            <feature>
              <rects>
                <_>
                  1 15 6 2 -1.</_>
                <_>
                  1 16 6 1 2.</_></rects>
              <tilted>0</tilted></feature>
            <threshold>1.0565130505710840e-003</threshold>
            <left_val>0.3366147875785828</left_val>
            <right_val>-0.5872501730918884</right_val></_></_>
        <_>
          <_>
            <feature>
              <rects>
                <_>
                  3 7 20 8 -1.</_>
                <_>
                  3 11 20 4 2.</_></rects>
              <tilted>0</tilted></feature>
            <threshold>0.0673824772238731</threshold>
            <left_val>-0.3409791886806488</left_val>
            <right_val>0.4510141909122467</right_val></_></_></trees>
      <stage_threshold>-0.9281284213066101</stage_threshold>
      <parent>5</parent>
      <next>-1</next></_>
    <_>
      <trees>
        <_>
          <_>
            <feature>
              <rects>
                <_>
                  9 20 2 2 -1.</_>
                <_>
                  9 20 1 2 2.</_></rects>
              <tilted>1</tilted></feature>
            <threshold>2.2604840341955423e-003</threshold>
            <left_val>-0.4059407114982605</left_val>
            <right_val>0.4141415953636169</right_val></_></_>
        <_>
          <_>
            <feature>
              <rects>
                <_>
                  20 14 2 3 -1.</_>
                <_>
                  20 15 2 1 3.</_></rects>
              <tilted>0</tilted></feature>
            <threshold>-5.1572448574006557e-003</threshold>
            <left_val>0.5074117779731751</left_val>
            <right_val>-0.0337453894317150</right_val></_></_>
        <_>
          <_>
            <feature>
              <rects>
                <_>
                  2 14 2 3 -1.</_>
                <_>
                  2 15 2 1 3.</_></rects>
              <tilted>0</tilted></feature>
            <threshold>4.5443579438142478e-004</threshold>
            <left_val>0.2803018987178803</left_val>
            <right_val>-0.7502874135971069</right_val></_></_>
        <_>
          <_>
            <feature>
              <rects>
                <_>
                  9 7 15 15 -1.</_>
                <_>
                  9 12 15 5 3.</_></rects>
              <tilted>0</tilted></feature>
            <threshold>0.0268869604915380</threshold>
            <left_val>-0.3453975915908814</left_val>
            <right_val>0.1996961981058121</right_val></_></_>
        <_>
          <_>
            <feature>
              <rects>
                <_>
                  6 14 2 2 -1.</_>
                <_>
                  6 14 1 2 2.</_></rects>
              <tilted>1</tilted></feature>
            <threshold>-5.4690300021320581e-004</threshold>
            <left_val>-0.7257353067398071</left_val>
            <right_val>0.3109565973281860</right_val></_></_>
        <_>
          <_>
            <feature>
              <rects>
                <_>
                  14 11 6 3 -1.</_>
                <_>
                  13 12 6 1 3.</_></rects>
              <tilted>1</tilted></feature>
            <threshold>2.9792909044772387e-003</threshold>
            <left_val>-0.1895124018192291</left_val>
            <right_val>0.2576578855514526</right_val></_></_>
        <_>
          <_>
            <feature>
              <rects>
                <_>
                  10 5 4 2 -1.</_>
                <_>
                  10 6 4 1 2.</_></rects>
              <tilted>0</tilted></feature>
            <threshold>-8.6992181604728103e-004</threshold>
            <left_val>-0.8294284939765930</left_val>
            <right_val>0.2097952067852020</right_val></_></_>
        <_>
          <_>
            <feature>
              <rects>
                <_>
                  18 12 2 3 -1.</_>
                <_>
                  17 13 2 1 3.</_></rects>
              <tilted>1</tilted></feature>
            <threshold>7.0205959491431713e-003</threshold>
            <left_val>-0.0813067033886909</left_val>
            <right_val>0.7843570709228516</right_val></_></_>
        <_>
          <_>
            <feature>
              <rects>
                <_>
                  6 12 3 3 -1.</_>
                <_>
                  7 13 1 3 3.</_></rects>
              <tilted>1</tilted></feature>
            <threshold>2.7228929102420807e-003</threshold>
            <left_val>0.2614254951477051</left_val>
            <right_val>-0.8705220222473145</right_val></_></_>
        <_>
          <_>
            <feature>
              <rects>
                <_>
                  17 7 6 5 -1.</_>
                <_>
                  17 7 3 5 2.</_></rects>
              <tilted>1</tilted></feature>
            <threshold>-0.1041880995035172</threshold>
            <left_val>-1.</left_val>
            <right_val>-0.0264912005513906</right_val></_></_>
        <_>
          <_>
            <feature>
              <rects>
                <_>
                  1 7 2 1 -1.</_>
                <_>
                  2 7 1 1 2.</_></rects>
              <tilted>0</tilted></feature>
            <threshold>4.3116410961374640e-004</threshold>
            <left_val>0.2410174012184143</left_val>
            <right_val>-0.7662643194198608</right_val></_></_></trees>
      <stage_threshold>-0.8625488281250000</stage_threshold>
      <parent>6</parent>
      <next>-1</next></_>
    <_>
      <trees>
        <_>
          <_>
            <feature>
              <rects>
                <_>
                  5 0 13 8 -1.</_>
                <_>
                  5 2 13 4 2.</_></rects>
              <tilted>0</tilted></feature>
            <threshold>-0.0204342007637024</threshold>
            <left_val>0.5885167717933655</left_val>
            <right_val>-0.6439793109893799</right_val></_></_>
        <_>
          <_>
            <feature>
              <rects>
                <_>
                  15 20 3 4 -1.</_>
                <_>
                  15 22 3 2 2.</_></rects>
              <tilted>0</tilted></feature>
            <threshold>3.2175439409911633e-003</threshold>
            <left_val>-0.1335093975067139</left_val>
            <right_val>0.4202308952808380</right_val></_></_>
        <_>
          <_>
            <feature>
              <rects>
                <_>
                  6 20 3 4 -1.</_>
                <_>
                  6 22 3 2 2.</_></rects>
              <tilted>0</tilted></feature>
            <threshold>-5.3898817859590054e-003</threshold>
            <left_val>0.7198094725608826</left_val>
            <right_val>-0.5204213857650757</right_val></_></_>
        <_>
          <_>
            <feature>
              <rects>
                <_>
                  18 7 6 3 -1.</_>
                <_>
                  17 8 6 1 3.</_></rects>
              <tilted>1</tilted></feature>
            <threshold>7.7607650309801102e-003</threshold>
            <left_val>-0.1015752032399178</left_val>
            <right_val>0.5969645977020264</right_val></_></_>
        <_>
          <_>
            <feature>
              <rects>
                <_>
                  6 7 3 6 -1.</_>
                <_>
                  7 8 1 6 3.</_></rects>
              <tilted>1</tilted></feature>
            <threshold>9.4972802326083183e-003</threshold>
            <left_val>-0.3625594079494476</left_val>
            <right_val>0.8461083173751831</right_val></_></_></trees>
      <stage_threshold>-0.5533769726753235</stage_threshold>
      <parent>7</parent>
      <next>-1</next></_>
    <_>
      <trees>
        <_>
          <_>
            <feature>
              <rects>
                <_>
                  10 16 4 3 -1.</_>
                <_>
                  11 17 2 3 2.</_></rects>
              <tilted>1</tilted></feature>
            <threshold>5.1764938980340958e-003</threshold>
            <left_val>-0.4309624135494232</left_val>
            <right_val>0.6397517919540405</right_val></_></_>
        <_>
          <_>
            <feature>
              <rects>
                <_>
                  23 11 1 8 -1.</_>
                <_>
                  21 13 1 4 2.</_></rects>
              <tilted>1</tilted></feature>
            <threshold>-3.8991800975054502e-003</threshold>
            <left_val>0.3952794075012207</left_val>
            <right_val>-0.0876668691635132</right_val></_></_>
        <_>
          <_>
            <feature>
              <rects>
                <_>
                  1 11 8 1 -1.</_>
                <_>
                  3 13 4 1 2.</_></rects>
              <tilted>1</tilted></feature>
            <threshold>6.5955161117017269e-003</threshold>
            <left_val>-0.3547103106975555</left_val>
            <right_val>0.8206633925437927</right_val></_></_>
        <_>
          <_>
            <feature>
              <rects>
                <_>
                  15 6 2 9 -1.</_>
                <_>
                  12 9 2 3 3.</_></rects>
              <tilted>1</tilted></feature>
            <threshold>-4.0475819259881973e-003</threshold>
            <left_val>0.3675122857093811</left_val>
            <right_val>-0.2633919119834900</right_val></_></_>
        <_>
          <_>
            <feature>
              <rects>
                <_>
                  5 13 8 6 -1.</_>
                <_>
                  9 13 4 6 2.</_></rects>
              <tilted>0</tilted></feature>
            <threshold>-7.7298628166317940e-003</threshold>
            <left_val>-0.6902763843536377</left_val>
            <right_val>0.3591996133327484</right_val></_></_>
        <_>
          <_>
            <feature>
              <rects>
                <_>
                  8 0 9 8 -1.</_>
                <_>
                  8 2 9 4 2.</_></rects>
              <tilted>0</tilted></feature>
            <threshold>-0.0223836004734039</threshold>
            <left_val>0.3893078863620758</left_val>
            <right_val>-0.4763078093528748</right_val></_></_>
        <_>
          <_>
            <feature>
              <rects>
                <_>
                  9 20 1 2 -1.</_>
                <_>
                  9 21 1 1 2.</_></rects>
              <tilted>0</tilted></feature>
            <threshold>-4.5353479799814522e-004</threshold>
            <left_val>0.4700937867164612</left_val>
            <right_val>-0.4967947900295258</right_val></_></_>
        <_>
          <_>
            <feature>
              <rects>
                <_>
                  17 14 6 3 -1.</_>
                <_>
                  17 15 6 1 3.</_></rects>
              <tilted>0</tilted></feature>
            <threshold>0.0105911502614617</threshold>
            <left_val>-0.0278004407882690</left_val>
            <right_val>0.9999986290931702</right_val></_></_>
        <_>
          <_>
            <feature>
              <rects>
                <_>
                  1 14 6 3 -1.</_>
                <_>
                  1 15 6 1 3.</_></rects>
              <tilted>0</tilted></feature>
            <threshold>6.6601228900253773e-004</threshold>
            <left_val>0.2787840962409973</left_val>
            <right_val>-0.7879099845886231</right_val></_></_></trees>
      <stage_threshold>-0.6340351104736328</stage_threshold>
      <parent>8</parent>
      <next>-1</next></_>
    <_>
      <trees>
        <_>
          <_>
            <feature>
              <rects>
                <_>
                  2 7 3 8 -1.</_>
                <_>
                  2 11 3 4 2.</_></rects>
              <tilted>0</tilted></feature>
            <threshold>0.0295982398092747</threshold>
            <left_val>-0.2073170989751816</left_val>
            <right_val>0.9444447755813599</right_val></_></_>
        <_>
          <_>
            <feature>
              <rects>
                <_>
                  19 12 2 4 -1.</_>
                <_>
                  19 13 2 2 2.</_></rects>
              <tilted>0</tilted></feature>
            <threshold>1.6340770525857806e-003</threshold>
            <left_val>-0.0128586702048779</left_val>
            <right_val>0.2370406985282898</right_val></_></_>
        <_>
          <_>
            <feature>
              <rects>
                <_>
                  3 12 2 4 -1.</_>
                <_>
                  3 13 2 2 2.</_></rects>
              <tilted>0</tilted></feature>
            <threshold>6.9984927540645003e-004</threshold>
            <left_val>0.2827821969985962</left_val>
            <right_val>-0.7926701903343201</right_val></_></_>
        <_>
          <_>
            <feature>
              <rects>
                <_>
                  14 18 4 6 -1.</_>
                <_>
                  14 20 4 2 3.</_></rects>
              <tilted>0</tilted></feature>
            <threshold>-0.0131719298660755</threshold>
            <left_val>0.3542410135269165</left_val>
            <right_val>-0.1736938953399658</right_val></_></_>
        <_>
          <_>
            <feature>
              <rects>
                <_>
                  8 21 1 2 -1.</_>
                <_>
                  8 22 1 1 2.</_></rects>
              <tilted>0</tilted></feature>
            <threshold>-2.9321290639927611e-005</threshold>
            <left_val>0.3555403053760529</left_val>
            <right_val>-0.5560798048973084</right_val></_></_>
        <_>
          <_>
            <feature>
              <rects>
                <_>
                  18 12 2 5 -1.</_>
                <_>
                  18 12 1 5 2.</_></rects>
              <tilted>0</tilted></feature>
            <threshold>-2.0048948936164379e-003</threshold>
            <left_val>-0.2772274911403656</left_val>
            <right_val>0.1043284982442856</right_val></_></_>
        <_>
          <_>
            <feature>
              <rects>
                <_>
                  4 12 2 5 -1.</_>
                <_>
                  5 12 1 5 2.</_></rects>
              <tilted>0</tilted></feature>
            <threshold>9.1096299001947045e-004</threshold>
            <left_val>0.1872622966766357</left_val>
            <right_val>-0.8879790902137756</right_val></_></_>
        <_>
          <_>
            <feature>
              <rects>
                <_>
                  12 16 2 8 -1.</_>
                <_>
                  12 16 1 8 2.</_></rects>
              <tilted>0</tilted></feature>
            <threshold>-4.7492329031229019e-003</threshold>
            <left_val>-0.8146681785583496</left_val>
            <right_val>0.0202484596520662</right_val></_></_></trees>
      <stage_threshold>-0.7368838787078857</stage_threshold>
      <parent>9</parent>
      <next>-1</next></_>
    <_>
      <trees>
        <_>
          <_>
            <feature>
              <rects>
                <_>
                  11 19 4 1 -1.</_>
                <_>
                  12 20 2 1 2.</_></rects>
              <tilted>1</tilted></feature>
            <threshold>-1.3008810346946120e-003</threshold>
            <left_val>0.4886364042758942</left_val>
            <right_val>-0.3839286863803864</right_val></_></_>
        <_>
          <_>
            <feature>
              <rects>
                <_>
                  5 8 18 10 -1.</_>
                <_>
                  11 8 6 10 3.</_></rects>
              <tilted>0</tilted></feature>
            <threshold>-0.1223964989185333</threshold>
            <left_val>0.4204351007938385</left_val>
            <right_val>-0.0280609093606472</right_val></_></_>
        <_>
          <_>
            <feature>
              <rects>
                <_>
                  1 8 16 10 -1.</_>
                <_>
                  5 8 8 10 2.</_></rects>
              <tilted>0</tilted></feature>
            <threshold>-0.0386516712605953</threshold>
            <left_val>0.4430234134197235</left_val>
            <right_val>-0.4095923006534576</right_val></_></_>
        <_>
          <_>
            <feature>
              <rects>
                <_>
                  11 2 2 8 -1.</_>
                <_>
                  11 6 2 4 2.</_></rects>
              <tilted>0</tilted></feature>
            <threshold>3.2649030908942223e-003</threshold>
            <left_val>-0.6416289806365967</left_val>
            <right_val>0.3489081859588623</right_val></_></_>
        <_>
          <_>
            <feature>
              <rects>
                <_>
                  2 8 8 2 -1.</_>
                <_>
                  4 10 4 2 2.</_></rects>
              <tilted>1</tilted></feature>
            <threshold>0.0195316094905138</threshold>
            <left_val>-0.2167735993862152</left_val>
            <right_val>0.7455962896347046</right_val></_></_>
        <_>
          <_>
            <feature>
              <rects>
                <_>
                  5 9 16 6 -1.</_>
                <_>
                  5 11 16 2 3.</_></rects>
              <tilted>0</tilted></feature>
            <threshold>-0.0101849604398012</threshold>
            <left_val>0.5208178162574768</left_val>
            <right_val>-0.3015013933181763</right_val></_></_>
        <_>
          <_>
            <feature>
              <rects>
                <_>
                  8 8 8 12 -1.</_>
                <_>
                  8 11 8 6 2.</_></rects>
              <tilted>0</tilted></feature>
            <threshold>0.0432095490396023</threshold>
            <left_val>-0.2708067893981934</left_val>
            <right_val>0.7440099120140076</right_val></_></_></trees>
      <stage_threshold>-0.9814776182174683</stage_threshold>
      <parent>10</parent>
      <next>-1</next></_>
    <_>
      <trees>
        <_>
          <_>
            <feature>
              <rects>
                <_>
                  4 13 1 4 -1.</_>
                <_>
                  4 14 1 2 2.</_></rects>
              <tilted>0</tilted></feature>
            <threshold>4.5351710286922753e-004</threshold>
            <left_val>0.2709031105041504</left_val>
            <right_val>-0.8019804954528809</right_val></_></_>
        <_>
          <_>
            <feature>
              <rects>
                <_>
                  4 0 17 2 -1.</_>
                <_>
                  4 1 17 1 2.</_></rects>
              <tilted>0</tilted></feature>
            <threshold>-0.0145778600126505</threshold>
            <left_val>0.7409899234771729</left_val>
            <right_val>-0.2744474112987518</right_val></_></_>
        <_>
          <_>
            <feature>
              <rects>
                <_>
                  0 13 11 3 -1.</_>
                <_>
                  0 14 11 1 3.</_></rects>
              <tilted>0</tilted></feature>
            <threshold>-4.1813971474766731e-003</threshold>
            <left_val>-0.8311560750007629</left_val>
            <right_val>0.2561796903610230</right_val></_></_>
        <_>
          <_>
            <feature>
              <rects>
                <_>
                  11 2 2 1 -1.</_>
                <_>
                  11 2 1 1 2.</_></rects>
              <tilted>0</tilted></feature>
            <threshold>-5.3669902263209224e-004</threshold>
            <left_val>-0.8337361812591553</left_val>
            <right_val>0.1988926976919174</right_val></_></_>
        <_>
          <_>
            <feature>
              <rects>
                <_>
                  2 16 2 2 -1.</_>
                <_>
                  2 17 2 1 2.</_></rects>
              <tilted>0</tilted></feature>
            <threshold>-4.7546709538437426e-004</threshold>
            <left_val>-0.6544188857078552</left_val>
            <right_val>0.3009462952613831</right_val></_></_>
        <_>
          <_>
            <feature>
              <rects>
                <_>
                  16 3 3 1 -1.</_>
                <_>
                  17 3 1 1 3.</_></rects>
              <tilted>0</tilted></feature>
            <threshold>-6.3492392655462027e-004</threshold>
            <left_val>-0.4615547955036163</left_val>
            <right_val>0.0605457909405231</right_val></_></_></trees>
      <stage_threshold>-1.2152290344238281</stage_threshold>
      <parent>11</parent>
      <next>-1</next></_>
    <_>
      <trees>
        <_>
          <_>
            <feature>
              <rects>
                <_>
                  7 10 8 8 -1.</_>
                <_>
                  7 10 4 4 2.</_>
                <_>
                  11 14 4 4 2.</_></rects>
              <tilted>0</tilted></feature>
            <threshold>9.8797660320997238e-003</threshold>
            <left_val>-0.3196721971035004</left_val>
            <right_val>0.5000001788139343</right_val></_></_>
        <_>
          <_>
            <feature>
              <rects>
                <_>
                  22 9 2 13 -1.</_>
                <_>
                  22 9 1 13 2.</_></rects>
              <tilted>0</tilted></feature>
            <threshold>-7.2469389997422695e-003</threshold>
            <left_val>0.3815037906169891</left_val>
            <right_val>-0.0585809014737606</right_val></_></_>
        <_>
          <_>
            <feature>
              <rects>
                <_>
                  0 11 2 13 -1.</_>
                <_>
                  1 11 1 13 2.</_></rects>
              <tilted>0</tilted></feature>
            <threshold>6.1884121969342232e-003</threshold>
            <left_val>-0.3205946981906891</left_val>
            <right_val>0.6233121156692505</right_val></_></_>
        <_>
          <_>
            <feature>
              <rects>
                <_>
                  14 18 4 6 -1.</_>
                <_>
                  14 20 4 2 3.</_></rects>
              <tilted>0</tilted></feature>
            <threshold>-6.8811387754976749e-003</threshold>
            <left_val>0.2572796046733856</left_val>
            <right_val>-0.1204027011990547</right_val></_></_>
        <_>
          <_>
            <feature>
              <rects>
                <_>
                  2 13 5 3 -1.</_>
                <_>
                  2 14 5 1 3.</_></rects>
              <tilted>0</tilted></feature>
            <threshold>1.2773229973390698e-003</threshold>
            <left_val>0.2057000994682312</left_val>
            <right_val>-0.8731135725975037</right_val></_></_>
        <_>
          <_>
            <feature>
              <rects>
                <_>
                  17 14 4 3 -1.</_>
                <_>
                  17 15 4 1 3.</_></rects>
              <tilted>0</tilted></feature>
            <threshold>6.4795040525496006e-003</threshold>
            <left_val>-3.1891630496829748e-003</left_val>
            <right_val>0.3363954126834869</right_val></_></_>
        <_>
          <_>
            <feature>
              <rects>
                <_>
                  3 14 4 3 -1.</_>
                <_>
                  3 15 4 1 3.</_></rects>
              <tilted>0</tilted></feature>
            <threshold>5.2718678489327431e-004</threshold>
            <left_val>0.2452632039785385</left_val>
            <right_val>-0.7066125869750977</right_val></_></_>
        <_>
          <_>
            <feature>
              <rects>
                <_>
                  11 2 10 8 -1.</_>
                <_>
                  16 2 5 4 2.</_>
                <_>
                  11 6 5 4 2.</_></rects>
              <tilted>0</tilted></feature>
            <threshold>0.0673923864960670</threshold>
            <left_val>-0.0160211902111769</left_val>
            <right_val>-0.7202963232994080</right_val></_></_>
        <_>
          <_>
            <feature>
              <rects>
                <_>
                  3 2 10 8 -1.</_>
                <_>
                  3 2 5 4 2.</_>
                <_>
                  8 6 5 4 2.</_></rects>
              <tilted>0</tilted></feature>
            <threshold>0.0258267708122730</threshold>
            <left_val>-0.2995643913745880</left_val>
            <right_val>0.6083226799964905</right_val></_></_>
        <_>
          <_>
            <feature>
              <rects>
                <_>
                  12 15 3 4 -1.</_>
                <_>
                  13 16 1 4 3.</_></rects>
              <tilted>1</tilted></feature>
            <threshold>8.7908003479242325e-003</threshold>
            <left_val>-0.1052955985069275</left_val>
            <right_val>0.4631989896297455</right_val></_></_>
        <_>
          <_>
            <feature>
              <rects>
                <_>
                  12 15 4 3 -1.</_>
                <_>
                  11 16 4 1 3.</_></rects>
              <tilted>1</tilted></feature>
            <threshold>2.8048548847436905e-003</threshold>
            <left_val>0.2369583994150162</left_val>
            <right_val>-0.7551795244216919</right_val></_></_>
        <_>
          <_>
            <feature>
              <rects>
                <_>
                  9 8 15 6 -1.</_>
                <_>
                  14 10 5 2 9.</_></rects>
              <tilted>0</tilted></feature>
            <threshold>-0.1745007932186127</threshold>
            <left_val>1.</left_val>
            <right_val>-0.0786255374550819</right_val></_></_>
        <_>
          <_>
            <feature>
              <rects>
                <_>
                  0 8 15 6 -1.</_>
                <_>
                  5 10 5 2 9.</_></rects>
              <tilted>0</tilted></feature>
            <threshold>-0.0968594327569008</threshold>
            <left_val>0.6702163815498352</left_val>
            <right_val>-0.2617076933383942</right_val></_></_></trees>
      <stage_threshold>-0.9156842231750488</stage_threshold>
      <parent>12</parent>
      <next>-1</next></_>
    <_>
      <trees>
        <_>
          <_>
            <feature>
              <rects>
                <_>
                  2 20 7 4 -1.</_>
                <_>
                  2 22 7 2 2.</_></rects>
              <tilted>0</tilted></feature>
            <threshold>-0.0117853898555040</threshold>
            <left_val>0.4010696113109589</left_val>
            <right_val>-0.3521127998828888</right_val></_></_>
        <_>
          <_>
            <feature>
              <rects>
                <_>
                  20 6 4 3 -1.</_>
                <_>
                  19 7 4 1 3.</_></rects>
              <tilted>1</tilted></feature>
            <threshold>3.7627869751304388e-003</threshold>
            <left_val>0.1474111974239349</left_val>
            <right_val>-0.3570202887058258</right_val></_></_>
        <_>
          <_>
            <feature>
              <rects>
                <_>
                  4 6 3 4 -1.</_>
                <_>
                  5 7 1 4 3.</_></rects>
              <tilted>1</tilted></feature>
            <threshold>-8.8126454502344131e-003</threshold>
            <left_val>0.7253500223159790</left_val>
            <right_val>-0.2304987013339996</right_val></_></_>
        <_>
          <_>
            <feature>
              <rects>
                <_>
                  22 12 2 12 -1.</_>
                <_>
                  22 12 1 12 2.</_></rects>
              <tilted>0</tilted></feature>
            <threshold>-1.8417689716443419e-003</threshold>
            <left_val>0.4060812890529633</left_val>
            <right_val>-0.2559081912040710</right_val></_></_>
        <_>
          <_>
            <feature>
              <rects>
                <_>
                  1 3 2 4 -1.</_>
                <_>
                  1 5 2 2 2.</_></rects>
              <tilted>0</tilted></feature>
            <threshold>1.9043739885091782e-003</threshold>
            <left_val>0.3185614049434662</left_val>
            <right_val>-0.5728939175605774</right_val></_></_>
        <_>
          <_>
            <feature>
              <rects>
                <_>
                  20 14 4 10 -1.</_>
                <_>
                  21 14 2 10 2.</_></rects>
              <tilted>0</tilted></feature>
            <threshold>0.0250183194875717</threshold>
            <left_val>-0.0470141507685184</left_val>
            <right_val>-0.9999961853027344</right_val></_></_>
        <_>
          <_>
            <feature>
              <rects>
                <_>
                  1 0 18 2 -1.</_>
                <_>
                  1 0 9 1 2.</_>
                <_>
                  10 1 9 1 2.</_></rects>
              <tilted>0</tilted></feature>
            <threshold>-8.5981357842683792e-003</threshold>
            <left_val>0.7118369936943054</left_val>
            <right_val>-0.1657487004995346</right_val></_></_>
        <_>
          <_>
            <feature>
              <rects>
                <_>
                  12 1 1 2 -1.</_>
                <_>
                  12 1 1 1 2.</_></rects>
              <tilted>1</tilted></feature>
            <threshold>1.4481330290436745e-003</threshold>
            <left_val>0.1256272941827774</left_val>
            <right_val>-0.5291544198989868</right_val></_></_>
        <_>
          <_>
            <feature>
              <rects>
                <_>
                  10 3 2 1 -1.</_>
                <_>
                  11 3 1 1 2.</_></rects>
              <tilted>0</tilted></feature>
            <threshold>-2.2806780179962516e-004</threshold>
            <left_val>-0.5713505744934082</left_val>
            <right_val>0.2424761950969696</right_val></_></_>
        <_>
          <_>
            <feature>
              <rects>
                <_>
                  22 10 2 6 -1.</_>
                <_>
                  23 10 1 3 2.</_>
                <_>
                  22 13 1 3 2.</_></rects>
              <tilted>0</tilted></feature>
            <threshold>8.4898862987756729e-003</threshold>
            <left_val>0.0156934596598148</left_val>
            <right_val>-0.9999995827674866</right_val></_></_>
        <_>
          <_>
            <feature>
              <rects>
                <_>
                  0 10 2 6 -1.</_>
                <_>
                  0 10 1 3 2.</_>
                <_>
                  1 13 1 3 2.</_></rects>
              <tilted>0</tilted></feature>
            <threshold>-1.8871179781854153e-003</threshold>
            <left_val>0.5917109847068787</left_val>
            <right_val>-0.2405261993408203</right_val></_></_>
        <_>
          <_>
            <feature>
              <rects>
                <_>
                  12 0 3 1 -1.</_>
                <_>
                  13 0 1 1 3.</_></rects>
              <tilted>0</tilted></feature>
            <threshold>1.1582350125536323e-003</threshold>
            <left_val>0.0641582012176514</left_val>
            <right_val>-0.8944054245948792</right_val></_></_>
        <_>
          <_>
            <feature>
              <rects>
                <_>
                  9 0 3 1 -1.</_>
                <_>
                  10 0 1 1 3.</_></rects>
              <tilted>0</tilted></feature>
            <threshold>3.4267190494574606e-004</threshold>
            <left_val>0.2327484041452408</left_val>
            <right_val>-0.6606674790382385</right_val></_></_></trees>
      <stage_threshold>-0.9396743178367615</stage_threshold>
      <parent>13</parent>
      <next>-1</next></_></stages></myfacedetector>
</opencv_storage>
